svm_type c_svc
kernel_type rbf
gamma 0.5
nr_class 2
total_sv 300
rho 0.652121
label 1 -1
nr_sv 52 248
SV
1.652343749999736 1:331 2:2086 
1.652343749999776 1:102 2:2601 
1.652343749999776 1:215 2:3292 
1.652343749999744 1:478 2:9528 
1.652343749967788 1:226 2:6022 
1.652343749997567 1:11 2:417 
1.65234374996779 1:162 2:840 
1.65234374996779 1:1171 2:33538 
1.652343749960929 1:828 2:65749 
1.652343749919484 1:402 2:12444 
1.652343749935587 1:1536 2:49891 
1.651679792766877 1:158 2:10186 
1.651784404474639 1:464 2:10192 
1.651792986050665 1:906 2:4433 
1.651792986050665 1:45 2:3530 
1.651825767373204 1:188 2:2892 
1.651835601659452 1:355 2:10693 
1.651841166761102 1:1016 2:7312 
1.651848069532565 1:112 2:9753 
1.651850855354471 1:410 2:5699 
1.651898247213808 1:1133 2:6853 
1.651900360998894 1:1129 2:5427 
1.651900360998894 1:517 2:13602 
1.651952997087259 1:123 2:5570 
1.651952997087259 1:133 2:20993 
1.651956732355836 1:522 2:8093 
1.651956732355836 1:186 2:5326 
1.652032833582314 1:1541 2:5031 
1.652032833582314 1:770 2:74416 
1.651680811142096 1:680 2:10389 
1.651903436410226 1:128 2:64825 
1.651452520426239 1:474 2:7628 
1.651669377414252 1:20 2:554 
1.651379637057619 1:72 2:12262 
1.651780293573792 1:578 2:19780 
1.651800252751892 1:624 2:73497 
1.651809635920022 1:74 2:17948 
1.651827986327328 1:215 2:21276 
1.651445648929399 1:1119 2:78389 
1.651768397839135 1:84 2:8358 
1.651712299501225 1:249 2:22507 
1.651620163872317 1:668 2:5386 
1.652020771739654 1:467 2:3716 
1.652020771977541 1:274 2:23380 
1.652020771977541 1:699 2:41441 
1.651843144989105 1:301 2:5160 
1.651795973792703 1:709 2:7981 
1.651918897277434 1:113 2:2542 
1.651903436410242 1:196 2:16990 
1.651903436410226 1:201 2:19670 
1.651827986327328 1:313 2:25470 
1.651809635920029 1:112 2:1537 
-0.3479424900937522 1:416 2:91 
-0.3479424900937522 1:4685 2:2604 
-0.3479424900937522 1:292 2:443 
-0.2956609795562613 1:6 2:4 
-0.3479424900937522 2:160 
-0.3479424900937522 1:1940 2:288 
-0.3479424900937522 1:3798 2:79 
-0.3478668108436978 1:81 2:165 
-0.3478668108436978 1:43 2:17 
-0.3478668108436978 1:442 2:197 
-0.3478668108436978 1:417 2:138 
-0.3478617071274492 1:253 2:149 
-0.347836698690363 1:286 2:148 
-0.3478363019341743 1:2172 2:195 
-0.3478347126607926 1:3256 2:489 
-0.3478347126607926 1:323 2:95 
-0.3477597665743181 1:301 2:17 
-0.3481277493565456 1:677 2:400 
-0.3483245880018311 1:171 2:72 
-0.3483191888579037 1:473 2:54 
-0.3483202072331227 1:122 2:107 
-0.3476550854158812 1:91 2:31 
-0.3482155955253611 1:3934 2:1389 
-0.3482070139493351 1:272 2:86 
-0.348151930467435 1:458 2:21 
-0.3481491446455287 1:167 2:720 
-0.3475925688411464 1:317 2:75 
-0.348101752786192 1:480 2:20 
-0.3480996390011061 1:1202 2:315 
-0.3480470029127408 1:760 2:298 
-0.348043267644164 1:420 2:156 
-0.3067045539490219 1:12 2:11 
-0.3479671664176864 1:215 2:24 
-0.3479424900937522 1:1409 2:345 
-0.3479424900937522 1:58 2:127 
-0.3479424900937522 1:849 2:259 
-0.3478668108436978 1:2324 2:246 
-0.3478668108436978 1:5797 2:1162 
-0.3478363019341743 1:150 2:119 
-0.3478347126607926 1:498 2:388 
-0.347759766574318 1:838 2:287 
-0.3455543782380997 1:571 2:165 
-0.3476652183299671 1:32515 2:1123 
-0.3476615531867573 1:1243 2:61 
-0.2818101092755082 1:4 2:5 
-0.3476426837068415 1:25 2:3 
-0.3476615515896079 1:943 2:484 
-0.3476615515896079 1:333 2:85 
-0.3446198017180793 1:1 2:5 
-0.3476594275764005 1:1089 2:357 
-0.3476583780412497 1:501 2:362 
-0.3476580233864936 1:1 2:339 
-0.3476576687064952 1:238 2:149 
-0.3476574736840583 1:42 2:117 
-0.3476570758315119 1:210 2:97 
-0.3476570467171424 1:478 2:131 
-0.3476569594032944 1:681 2:227 
-0.3476562499991527 1:23 2:12 
-0.3476569593935034 1:1425 2:413 
-0.3476569593935034 1:1115 2:873 
-0.3476563664579118 1:147 2:1 
-0.3476563664579118 1:711 2:90 
-0.3476563082284134 1:408 2:181 
-0.3476562846946077 1:1140 2:225 
-0.3476562553324925 1:123 2:540 
-0.3426513635434857 1:8 2:2 
-0.3476562535551943 1:2560 2:191 
-0.3476562506469137 1:877 2:79 
-0.3066170645772144 1:12 2:9 
-0.3476562506469137 1:611 2:283 
-0.3476562504434578 1:632 2:137 
-0.3476562503809 1:90 2:133 
-0.347656250308204 1:957 2:145 
-0.3476562501834025 1:5518 2:369 
-0.3476562501638688 1:509 2:152 
-0.3476562501638688 1:1592 2:1372 
-0.3476562500966166 1:86 2:207 
-0.3476562500805138 1:55 2:65 
-0.3476676532519275 1:39 2:44 
-0.347656250064413 1:1068 2:103 
-0.3476562500390693 1:1166 2:363 
-0.3476562500390693 1:69 2:13 
-0.3218222238566865 1:599 2:221 
-0.3476562500322105 1:527 2:787 
-0.3476562500322105 1:72 2:96 
-0.3476562500322105 1:1598 2:78 
-0.3476562500024326 1:224 2:70 
-0.3476562500002465 1:508 2:81 
-0.3476562500002238 1:693 2:313 
-0.3483306225857479 1:364 2:174 
-0.3476562472591238 1:2 2:18 
-0.3485474795737608 1:242 2:14 
-0.348219706426165 1:704 2:366 
-0.3486203629423811 1:524 2:2164 
-0.3486203629423663 1:334 2:162 
-0.3483306225857479 1:1518 2:614 
-0.3485474795737608 1:1274 2:3084 
-0.3480965635897581 1:537 2:43 
-0.3419863271227129 1:55 2:17 
-0.3483245880018311 1:995 2:331 
-0.3483245880018311 1:158 2:14 
-0.3476562500024326 1:1 2:471 
-0.3476562500322105 1:1482 2:118 
-0.347563284624245 1:12 2:5 
-0.3476562500390713 1:186 2:21 
-0.3476562500390693 1:82 2:2 
-0.3476652183299671 1:4668 2:55 
-0.3476625701348264 1:1338 2:84 
-0.3476562499487182 1:104 2:71 
-0.3476615531867574 1:589 2:1 
-0.3476615531867574 1:257 2:648 
-0.347661551589608 1:51 2:457 
-0.347661551589608 1:338 2:96 
-0.3476615515896079 1:181 2:158 
-0.347655787519986 1:87 2:28 
-0.3476615515896079 1:4254 2:337 
-0.3476594275764005 1:1141 2:436 
-0.3476584666646846 1:653 2:576 
-0.3476583780412497 1:623 2:142 
-0.3476583779862514 1:302 2:106 
-0.3476580233864936 1:83 2:92 
-0.3476580233864936 1:515 2:328 
-0.3476576687064952 1:782 2:1310 
-0.3476574736840583 1:137 2:75 
-0.3476574736840583 1:502 2:98 
-0.3476570831099143 1:389 2:203 
-0.3476570758315118 1:902 2:265 
-0.3476570467171424 1:115 2:76 
-0.2813794761322618 1:4 2:3 
-0.3476570467171424 1:3729 2:186 
-0.3476569594032944 1:992 2:496 
-0.3476569594032944 1:954 2:903 
-0.3476569593935034 1:758 2:188 
-0.3476569593935034 1:350 2:23 
-0.3476569593935034 1:758 2:209 
-0.3419681311255813 1:34 2:1 
-0.3476569593935034 1:3331 2:99 
-0.3476563664579118 1:619 2:154 
-0.3476563664579118 1:2492 2:449 
-0.3476563664579118 1:254 2:536 
-0.3476563664579118 1:897 2:424 
-0.3476563664542917 1:1207 2:358 
-0.3476563082284134 1:289 2:227 
-0.3476562846946076 1:227 2:39 
-0.3476562846946076 1:579 2:480 
-0.3482197064251575 1:38 2:10 
-0.3476562571093773 1:1674 2:375 
-0.3476562553324925 1:69 2:73 
-0.3476562535551943 1:197 2:42 
-0.3483191888579037 1:1280 2:738 
-0.3486203629423664 1:502 2:332 
-0.348219706426165 1:32 2:230 
-0.3481277493565456 1:2000 2:5 
-0.3481680652695968 1:470 2:551 
-0.3479792280224586 1:633 2:664 
-0.3458360712549399 1:568 2:166 
-0.3482081349652192 1:1186 2:108 
-0.3480965635897738 1:402 2:142 
-0.3479424900937523 1:427 2:510 
-0.3477659745965457 1:313 2:76 
-0.3478668108436978 1:1787 2:454 
-0.3418855417248122 1:57 2:15 
-0.347661551589608 1:447 2:161 
-0.3476569593935034 1:325 2:124 
-0.3476563664579118 1:695 2:179 
-0.3476562506469137 1:1074 2:706 
-0.3476562497536623 1:108 2:66 
-0.3476562500390713 1:740 2:297 
-0.3476562500322106 1:231 2:194 
-0.3481568550108947 1:261 2:104 
-0.34824160621212 1:198 2:366 
-0.3450035961301057 1:4 
-0.3476562535551943 1:769 2:164 
-0.3481492399539416 1:2940 2:228 
-0.3476562499984797 1:374 2:109 
-0.348081102722566 1:137 2:111 
-0.3479792282603463 1:472 2:267 
-0.3479792280224586 1:2069 2:996 
-0.3482921502336939 1:992 2:134 
-0.348222159001814 1:442 2:260 
-0.3485543510706005 1:540 2:34 
-0.348324588001831 1:138 2:383 
-0.3483191888579037 1:89 2:40 
-0.3476562500321231 1:6 2:112 
-0.3482070139493351 1:372 2:247 
-0.3480996390011061 1:171 2:59 
-0.3480470029127409 1:1544 2:302 
-0.348043267644164 1:345 2:133 
-0.3479671664176864 1:1315 2:317 
-0.3479424900937523 1:4863 2:137 
-0.3476562472631817 1:3 2:12 
-0.3479424900937523 1:819 2:34 
-0.3478668108436978 1:130 2:171 
-0.3478347126607926 1:839 2:149 
-0.3476615531867573 1:883 2:515 
-0.347661551589608 1:603 2:88 
-0.3476580233864937 1:801 2:302 
-0.3476574736840583 1:586 2:242 
-0.3476570467171424 1:562 2:1 
-0.3476569594032945 1:4712 2:241 
-0.3476562506469133 1:47 2:42 
-0.3476569593935034 1:83 2:20 
-0.3476563664579118 1:217 
-0.3476562846946077 1:405 2:83 
-0.3476562535551943 1:1093 2:731 
-0.3476562506469137 1:908 2:250 
-0.3476427718395528 1:21 2:5 
-0.3476562501834025 1:489 2:216 
-0.3476562501638688 1:487 2:73 
-0.3476562500805158 1:169 2:97 
-0.3476562500390713 1:90 2:73 
-0.3476562500322115 1:257 2:35 
-0.3476562500322116 1:888 2:522 
-0.3476562499985075 1:368 2:113 
-0.3476562500024326 1:2323 2:437 
-0.3476562500002238 1:426 2:90 
-0.3216170509992757 1:598 2:223 
-0.341973922759348 1:36 2:3 
-0.3482798852753825 1:17481 2:520 
-0.3482040262072967 1:1781 2:285 
-0.3480965635897738 1:575 2:19 
-0.348330622585748 1:236 2:91 
-0.3485474795737609 1:278 2:129 
-0.3476562500322105 1:1101 2:463 
-0.3476562500390693 1:1271 2:343 
-0.3476562506469138 1:1849 2:273 
-0.3476562506469137 1:475 2:210 
-0.3476562180048608 1:16 2:1 
-0.3476562506469137 1:127 2:17 
-0.347656250470581 1:914 2:527 
-0.3476562504435046 1:827 2:63 
-0.3476562504434577 1:975 2:235 
-0.3476562503833417 1:1152 2:288 
-0.3476562503809 1:156 2:231 
-0.347656250308204 1:1789 2:734 
-0.3476562501834025 1:3096 2:160 
-0.347656249388095 1:117 2:136 
-0.3476562501834024 1:389 2:472 
-0.3476562501834024 1:1159 2:1684 
-0.3476562501638688 1:1012 2:795 
-0.3476562500001569 1:13 2:115 
-0.3476562501638688 1:869 2:193 
-0.3476562501638688 1:1771 2:311 
-0.3476562493840694 1:119 2:130 
-0.3476562501006423 1:1402 2:846 
-0.3476562500966166 1:2406 2:797 
-0.3476562500966166 2:36 
-0.3476562500805138 1:1345 2:452 
